digraph Tree {
node [shape=box, style="filled, rounded", color="black", fontname=helvetica] ;
edge [fontname=helvetica] ;
0 [label="X[1] <= 44.5\nentropy = 0.8\nsamples = 15556\nvalue = [11744, 3812]", fillcolor="#edaa79"] ;
1 [label="X[0] <= 11.5\nentropy = 1.0\nsamples = 3844\nvalue = [1854, 1990]", fillcolor="#f1f8fd"] ;
0 -> 1 [labeldistance=2.5, labelangle=45, headlabel="True"] ;
2 [label="X[0] <= 6.5\nentropy = 0.98\nsamples = 2930\nvalue = [1676, 1254]", fillcolor="#f8dfcd"] ;
1 -> 2 ;
3 [label="X[1] <= 39.5\nentropy = 0.84\nsamples = 765\nvalue = [558, 207]", fillcolor="#efb082"] ;
2 -> 3 ;
4 [label="X[0] <= 5.5\nentropy = 0.91\nsamples = 442\nvalue = [298, 144]", fillcolor="#f2be99"] ;
3 -> 4 ;
5 [label="entropy = 0.84\nsamples = 243\nvalue = [178, 65]", fillcolor="#eeaf81"] ;
4 -> 5 ;
6 [label="entropy = 0.97\nsamples = 199\nvalue = [120, 79]", fillcolor="#f6d4bb"] ;
4 -> 6 ;
7 [label="X[0] <= 2.5\nentropy = 0.71\nsamples = 323\nvalue = [260, 63]", fillcolor="#eba069"] ;
3 -> 7 ;
8 [label="entropy = 0.0\nsamples = 18\nvalue = [18, 0]", fillcolor="#e58139"] ;
7 -> 8 ;
9 [label="entropy = 0.73\nsamples = 305\nvalue = [242, 63]", fillcolor="#eca26d"] ;
7 -> 9 ;
10 [label="X[1] <= 39.5\nentropy = 1.0\nsamples = 2165\nvalue = [1118, 1047]", fillcolor="#fdf7f2"] ;
2 -> 10 ;
11 [label="X[0] <= 9.5\nentropy = 0.99\nsamples = 1375\nvalue = [619, 756]", fillcolor="#dbedfa"] ;
10 -> 11 ;
12 [label="entropy = 1.0\nsamples = 945\nvalue = [467, 478]", fillcolor="#fafdfe"] ;
11 -> 12 ;
13 [label="entropy = 0.94\nsamples = 430\nvalue = [152, 278]", fillcolor="#a5d3f3"] ;
11 -> 13 ;
14 [label="X[3] <= 2911.17\nentropy = 0.95\nsamples = 790\nvalue = [499, 291]", fillcolor="#f4caac"] ;
10 -> 14 ;
15 [label="entropy = 0.97\nsamples = 582\nvalue = [346, 236]", fillcolor="#f7d7c0"] ;
14 -> 15 ;
16 [label="entropy = 0.83\nsamples = 208\nvalue = [153, 55]", fillcolor="#eeae80"] ;
14 -> 16 ;
17 [label="X[0] <= 15.5\nentropy = 0.71\nsamples = 914\nvalue = [178, 736]", fillcolor="#69b5eb"] ;
1 -> 17 ;
18 [label="X[1] <= 39.5\nentropy = 0.82\nsamples = 642\nvalue = [166, 476]", fillcolor="#7ebfee"] ;
17 -> 18 ;
19 [label="X[4] <= 9.5\nentropy = 0.72\nsamples = 415\nvalue = [83, 332]", fillcolor="#6ab6ec"] ;
18 -> 19 ;
20 [label="entropy = 0.74\nsamples = 395\nvalue = [83, 312]", fillcolor="#6eb7ec"] ;
19 -> 20 ;
21 [label="entropy = 0.0\nsamples = 20\nvalue = [0, 20]", fillcolor="#399de5"] ;
19 -> 21 ;
22 [label="X[1] <= 40.5\nentropy = 0.95\nsamples = 227\nvalue = [83, 144]", fillcolor="#abd5f4"] ;
18 -> 22 ;
23 [label="entropy = 1.0\nsamples = 50\nvalue = [25, 25]", fillcolor="#ffffff"] ;
22 -> 23 ;
24 [label="entropy = 0.91\nsamples = 177\nvalue = [58, 119]", fillcolor="#9acdf2"] ;
22 -> 24 ;
25 [label="X[0] <= 18.5\nentropy = 0.26\nsamples = 272\nvalue = [12, 260]", fillcolor="#42a2e6"] ;
17 -> 25 ;
26 [label="X[4] <= 6.5\nentropy = 0.39\nsamples = 154\nvalue = [12, 142]", fillcolor="#4aa5e7"] ;
25 -> 26 ;
27 [label="entropy = 0.21\nsamples = 90\nvalue = [3, 87]", fillcolor="#40a0e6"] ;
26 -> 27 ;
28 [label="entropy = 0.59\nsamples = 64\nvalue = [9, 55]", fillcolor="#59ade9"] ;
26 -> 28 ;
29 [label="entropy = 0.0\nsamples = 118\nvalue = [0, 118]", fillcolor="#399de5"] ;
25 -> 29 ;
30 [label="X[0] <= 10.5\nentropy = 0.62\nsamples = 11712\nvalue = [9890, 1822]", fillcolor="#ea985d"] ;
0 -> 30 [labeldistance=2.5, labelangle=-45, headlabel="False"] ;
31 [label="X[0] <= 7.5\nentropy = 0.49\nsamples = 9107\nvalue = [8121, 986]", fillcolor="#e89051"] ;
30 -> 31 ;
32 [label="X[1] <= 45.5\nentropy = 0.38\nsamples = 4622\nvalue = [4283, 339]", fillcolor="#e78b49"] ;
31 -> 32 ;
33 [label="entropy = 0.0\nsamples = 137\nvalue = [137, 0]", fillcolor="#e58139"] ;
32 -> 33 ;
34 [label="X[0] <= 5.5\nentropy = 0.39\nsamples = 4485\nvalue = [4146, 339]", fillcolor="#e78b49"] ;
32 -> 34 ;
35 [label="entropy = 0.31\nsamples = 1914\nvalue = [1807, 107]", fillcolor="#e78845"] ;
34 -> 35 ;
36 [label="entropy = 0.44\nsamples = 2571\nvalue = [2339, 232]", fillcolor="#e88d4d"] ;
34 -> 36 ;
37 [label="X[1] <= 45.5\nentropy = 0.6\nsamples = 4485\nvalue = [3838, 647]", fillcolor="#e9965a"] ;
31 -> 37 ;
38 [label="entropy = 0.0\nsamples = 112\nvalue = [112, 0]", fillcolor="#e58139"] ;
37 -> 38 ;
39 [label="X[2] <= 7.5\nentropy = 0.6\nsamples = 4373\nvalue = [3726, 647]", fillcolor="#ea975b"] ;
37 -> 39 ;
40 [label="entropy = 0.48\nsamples = 573\nvalue = [513, 60]", fillcolor="#e89050"] ;
39 -> 40 ;
41 [label="entropy = 0.62\nsamples = 3800\nvalue = [3213, 587]", fillcolor="#ea985d"] ;
39 -> 41 ;
42 [label="X[0] <= 13.5\nentropy = 0.91\nsamples = 2605\nvalue = [1769, 836]", fillcolor="#f1bd97"] ;
30 -> 42 ;
43 [label="X[0] <= 12.5\nentropy = 0.82\nsamples = 1897\nvalue = [1417, 480]", fillcolor="#eeac7c"] ;
42 -> 43 ;
44 [label="X[3] <= 30013.33\nentropy = 0.78\nsamples = 1482\nvalue = [1138, 344]", fillcolor="#eda775"] ;
43 -> 44 ;
45 [label="entropy = 0.79\nsamples = 1460\nvalue = [1117, 343]", fillcolor="#eda876"] ;
44 -> 45 ;
46 [label="entropy = 0.27\nsamples = 22\nvalue = [21, 1]", fillcolor="#e68742"] ;
44 -> 46 ;
47 [label="X[3] <= 4025.0\nentropy = 0.91\nsamples = 415\nvalue = [279, 136]", fillcolor="#f2be9a"] ;
43 -> 47 ;
48 [label="entropy = 0.95\nsamples = 246\nvalue = [154, 92]", fillcolor="#f5ccaf"] ;
47 -> 48 ;
49 [label="entropy = 0.83\nsamples = 169\nvalue = [125, 44]", fillcolor="#eead7f"] ;
47 -> 49 ;
50 [label="X[0] <= 17.5\nentropy = 1.0\nsamples = 708\nvalue = [352, 356]", fillcolor="#fdfeff"] ;
42 -> 50 ;
51 [label="X[2] <= 37.5\nentropy = 0.99\nsamples = 611\nvalue = [334, 277]", fillcolor="#fbe9dd"] ;
50 -> 51 ;
52 [label="entropy = 0.98\nsamples = 459\nvalue = [266, 193]", fillcolor="#f8dcc9"] ;
51 -> 52 ;
53 [label="entropy = 0.99\nsamples = 152\nvalue = [68, 84]", fillcolor="#d9ecfa"] ;
51 -> 53 ;
54 [label="X[0] <= 19.5\nentropy = 0.69\nsamples = 97\nvalue = [18, 79]", fillcolor="#66b3eb"] ;
50 -> 54 ;
55 [label="entropy = 0.85\nsamples = 62\nvalue = [17, 45]", fillcolor="#84c2ef"] ;
54 -> 55 ;
56 [label="entropy = 0.19\nsamples = 35\nvalue = [1, 34]", fillcolor="#3fa0e6"] ;
54 -> 56 ;
}