digraph Tree {
node [shape=box, style="filled, rounded", color="black", fontname=helvetica] ;
edge [fontname=helvetica] ;
0 [label="X[1] <= 44.5\ngini = 0.37\nsamples = 15556\nvalue = [11744, 3812]", fillcolor="#edaa79"] ;
1 [label="X[0] <= 10.5\ngini = 0.5\nsamples = 3844\nvalue = [1854, 1990]", fillcolor="#f1f8fd"] ;
0 -> 1 [labeldistance=2.5, labelangle=45, headlabel="True"] ;
2 [label="X[0] <= 6.5\ngini = 0.48\nsamples = 2638\nvalue = [1559, 1079]", fillcolor="#f7d8c2"] ;
1 -> 2 ;
3 [label="X[1] <= 39.5\ngini = 0.39\nsamples = 765\nvalue = [558, 207]", fillcolor="#efb082"] ;
2 -> 3 ;
4 [label="gini = 0.44\nsamples = 442\nvalue = [298, 144]", fillcolor="#f2be99"] ;
3 -> 4 ;
5 [label="gini = 0.31\nsamples = 323\nvalue = [260, 63]", fillcolor="#eba069"] ;
3 -> 5 ;
6 [label="X[1] <= 39.5\ngini = 0.5\nsamples = 1873\nvalue = [1001, 872]", fillcolor="#fcefe5"] ;
2 -> 6 ;
7 [label="gini = 0.5\nsamples = 1187\nvalue = [556, 631]", fillcolor="#e7f3fc"] ;
6 -> 7 ;
8 [label="gini = 0.46\nsamples = 686\nvalue = [445, 241]", fillcolor="#f3c5a4"] ;
6 -> 8 ;
9 [label="X[0] <= 14.5\ngini = 0.37\nsamples = 1206\nvalue = [295, 911]", fillcolor="#79bded"] ;
1 -> 9 ;
10 [label="X[1] <= 39.5\ngini = 0.44\nsamples = 835\nvalue = [268, 567]", fillcolor="#97cbf1"] ;
9 -> 10 ;
11 [label="gini = 0.39\nsamples = 533\nvalue = [140, 393]", fillcolor="#80c0ee"] ;
10 -> 11 ;
12 [label="gini = 0.49\nsamples = 302\nvalue = [128, 174]", fillcolor="#cbe5f8"] ;
10 -> 12 ;
13 [label="X[1] <= 39.5\ngini = 0.13\nsamples = 371\nvalue = [27, 344]", fillcolor="#49a5e7"] ;
9 -> 13 ;
14 [label="gini = 0.08\nsamples = 280\nvalue = [11, 269]", fillcolor="#41a1e6"] ;
13 -> 14 ;
15 [label="gini = 0.29\nsamples = 91\nvalue = [16, 75]", fillcolor="#63b2eb"] ;
13 -> 15 ;
16 [label="X[0] <= 12.5\ngini = 0.26\nsamples = 11712\nvalue = [9890, 1822]", fillcolor="#ea985d"] ;
0 -> 16 [labeldistance=2.5, labelangle=-45, headlabel="False"] ;
17 [label="X[0] <= 8.5\ngini = 0.22\nsamples = 10589\nvalue = [9259, 1330]", fillcolor="#e99355"] ;
16 -> 17 ;
18 [label="X[0] <= 7.5\ngini = 0.16\nsamples = 6614\nvalue = [6020, 594]", fillcolor="#e88d4d"] ;
17 -> 18 ;
19 [label="gini = 0.14\nsamples = 4622\nvalue = [4283, 339]", fillcolor="#e78b49"] ;
18 -> 19 ;
20 [label="gini = 0.22\nsamples = 1992\nvalue = [1737, 255]", fillcolor="#e99356"] ;
18 -> 20 ;
21 [label="X[0] <= 10.5\ngini = 0.3\nsamples = 3975\nvalue = [3239, 736]", fillcolor="#eb9e66"] ;
17 -> 21 ;
22 [label="gini = 0.27\nsamples = 2493\nvalue = [2101, 392]", fillcolor="#ea995e"] ;
21 -> 22 ;
23 [label="gini = 0.36\nsamples = 1482\nvalue = [1138, 344]", fillcolor="#eda775"] ;
21 -> 23 ;
24 [label="X[0] <= 17.5\ngini = 0.49\nsamples = 1123\nvalue = [631, 492]", fillcolor="#f9e3d3"] ;
16 -> 24 ;
25 [label="X[0] <= 13.5\ngini = 0.48\nsamples = 1026\nvalue = [613, 413]", fillcolor="#f7d6be"] ;
24 -> 25 ;
26 [label="gini = 0.44\nsamples = 415\nvalue = [279, 136]", fillcolor="#f2be9a"] ;
25 -> 26 ;
27 [label="gini = 0.5\nsamples = 611\nvalue = [334, 277]", fillcolor="#fbe9dd"] ;
25 -> 27 ;
28 [label="X[1] <= 63.0\ngini = 0.3\nsamples = 97\nvalue = [18, 79]", fillcolor="#66b3eb"] ;
24 -> 28 ;
29 [label="gini = 0.24\nsamples = 85\nvalue = [12, 73]", fillcolor="#5aade9"] ;
28 -> 29 ;
30 [label="gini = 0.5\nsamples = 12\nvalue = [6, 6]", fillcolor="#ffffff"] ;
28 -> 30 ;
}